digraph Tree {
node [shape=box, style="filled, rounded", color="black", fontname=helvetica] ;
edge [fontname=helvetica] ;
0 [label="petal width (cm) <= 0.75\ngini = 0.66\nsamples = 100\nvalue = [43, 58, 49]\nclass = versicolor", fillcolor="#edfdf4"] ;
1 [label="gini = 0.0\nsamples = 29\nvalue = [43, 0, 0]\nclass = setosa", fillcolor="#e58139"] ;
0 -> 1 [labeldistance=2.5, labelangle=45, headlabel="True"] ;
2 [label="petal length (cm) <= 4.85\ngini = 0.5\nsamples = 71\nvalue = [0, 58, 49]\nclass = versicolor", fillcolor="#e0fbeb"] ;
0 -> 2 [labeldistance=2.5, labelangle=-45, headlabel="False"] ;
3 [label="gini = 0.0\nsamples = 34\nvalue = [0, 53, 0]\nclass = versicolor", fillcolor="#39e581"] ;
2 -> 3 ;
4 [label="petal width (cm) <= 1.7\ngini = 0.17\nsamples = 37\nvalue = [0, 5, 49]\nclass = virginica", fillcolor="#8e4de8"] ;
2 -> 4 ;
5 [label="sepal length (cm) <= 6.15\ngini = 0.41\nsamples = 4\nvalue = [0, 5, 2]\nclass = versicolor", fillcolor="#88efb3"] ;
4 -> 5 ;
6 [label="sepal width (cm) <= 2.45\ngini = 0.5\nsamples = 2\nvalue = [0, 2, 2]\nclass = versicolor", fillcolor="#ffffff"] ;
5 -> 6 ;
7 [label="gini = 0.0\nsamples = 1\nvalue = [0, 0, 2]\nclass = virginica", fillcolor="#8139e5"] ;
6 -> 7 ;
8 [label="gini = 0.0\nsamples = 1\nvalue = [0, 2, 0]\nclass = versicolor", fillcolor="#39e581"] ;
6 -> 8 ;
9 [label="gini = 0.0\nsamples = 2\nvalue = [0, 3, 0]\nclass = versicolor", fillcolor="#39e581"] ;
5 -> 9 ;
10 [label="gini = 0.0\nsamples = 33\nvalue = [0, 0, 47]\nclass = virginica", fillcolor="#8139e5"] ;
4 -> 10 ;
}